-7.578640764860820889e-02
2.466840535229214426e-01
0.000000000000000000e+00
2.466840535229214426e-01
4.705380133345110627e-02
-9.494247734468500705e-03
-1.218175290105558486e-02
1.956630417742286632e-01
-1.339124496718906709e-01
0.000000000000000000e+00
4.705380133345110627e-02
-9.494247734468500705e-03
-9.494247734468500705e-03
0.000000000000000000e+00
-1.218175290105558486e-02
0.000000000000000000e+00
1.956630417742286632e-01
0.000000000000000000e+00
-1.339124496718906709e-01
-6.385662847993799074e-02
-1.752707587114409049e-02
-6.253544147514984372e-03
-9.068684943351498079e-03
0.000000000000000000e+00
-7.578640764860820889e-02
0.000000000000000000e+00
-6.385662847993799074e-02
0.000000000000000000e+00
-1.752707587114409049e-02
0.000000000000000000e+00
-6.253544147514984372e-03
0.000000000000000000e+00
-9.068684943351498079e-03
9.976983373206844974e-02
0.000000000000000000e+00
9.976983373206844974e-02
1.539114094674662592e-01
0.000000000000000000e+00
1.539114094674662592e-01
